{"input_weights": [[-0.366413083909472, -1.2517062624077941, -1.9138588847061693, 0.499580512333069, -2.384359689238118, -1.988111484503805, -2.368260487188972, 1.8382102406396306, -3.1984815134744453, 1.9879737822817074], [-1.2911320804851492, -2.9164990225880008, -2.4838857000328356, 1.913916051207777, -2.6546803909566683, -3.331428232461377, -1.2443368402857315, 3.7950343407262475, -3.5923603192923745, 1.97970148235547], [4.195693144527003, 1.4443816172921136, 1.7993156755140773, -4.369499130220408, 1.7863812953668556, 7.001639927312712, 1.5974088146689598, -7.613083366856336, 9.146157150191796, -1.5449121708681706], [-0.050293565165247106, 1.569293745837885, 1.2082265146439366, 0.17275724180195765, 0.6512193015619612, 1.8733350884942275, 0.6675724805934299, -1.501878836021061, 1.2343467447531022, -0.6135568585010083]], "output_weights": [[2.078176399735857, 516.0380439010955], [1.2516191269704295, 511.7631891360775], [1.4032760932135997, 512.4909878888227], [-2.160680419176394, -525.0658141063282], [1.4747576719362758, 511.59689388370447], [0.3023389845451779, 520.7680893265396], [2.1464585156169136, 514.4466011014881], [-1.3872969568848905, -517.0301773405668], [0.6115068789225828, 517.7070848582565], [-2.7769633375510447, -512.5719511876414]]}